-3.426516056060791016e-02 2.074496820569038391e-02 -3.523517772555351257e-02 3.402603790163993835e-02 -1.345265656709671021e-03 -1.410961151123046875e-02 -3.764962032437324524e-02 4.324022307991981506e-02 9.886085987091064453e-03 -1.549074798822402954e-02 -1.209057494997978210e-02 -4.623072221875190735e-02
-4.596046358346939087e-02 1.429307833313941956e-02 2.671316638588905334e-02 -3.122507408261299133e-02 2.416142448782920837e-02 -6.134212017059326172e-03 2.070747315883636475e-03 3.780620172619819641e-02 4.297609254717826843e-02 2.922466024756431580e-02 9.672962129116058350e-03 4.754086956381797791e-02
-3.764189779758453369e-03 3.252771124243736267e-02 -1.960538700222969055e-02 1.170359551906585693e-03 -4.338506609201431274e-02 3.568172454833984375e-03 2.625160291790962219e-02 -1.654502004384994507e-02 -4.170865938067436218e-02 2.766202762722969055e-02 -6.116114556789398193e-03 -2.234373055398464203e-02
1.065792888402938843e-02 -3.934855386614799500e-02 -3.781954199075698853e-02 2.070332691073417664e-02 1.909953728318214417e-02 -4.435117170214653015e-02 1.247119903564453125e-02 4.576362669467926025e-03 -1.643595844507217407e-02 -2.385269850492477417e-03 3.900129720568656921e-02 -3.140913322567939758e-02
2.170337364077568054e-02 4.012221470475196838e-02 -3.226913511753082275e-02 -1.009942218661308289e-02 3.214534744620323181e-02 -2.434842661023139954e-02 -1.122577115893363953e-02 1.637040451169013977e-02 -2.878092601895332336e-02 -1.142967864871025085e-02 3.369167819619178772e-02 -2.972923591732978821e-02
7.992316037416458130e-03 4.075029119849205017e-02 -1.649624109268188477e-02 -2.114217355847358704e-02 2.848923206329345703e-03 3.672125563025474548e-02 -3.693986684083938599e-03 -2.121236361563205719e-02 -3.933846950531005859e-02 2.138726785778999329e-02 -1.067023351788520813e-02 -2.068960666656494141e-02
-7.523454725742340088e-03 -4.346389696002006531e-02 8.863426744937896729e-03 4.100299254059791565e-02 1.859687641263008118e-02 4.681172594428062439e-02 4.403840377926826477e-02 -4.459002241492271423e-02 -3.356025367975234985e-02 -3.693700954318046570e-02 2.769562229514122009e-02 -2.180314064025878906e-02
2.572533860802650452e-02 -7.182549685239791870e-03 -2.896864525973796844e-02 3.644846752285957336e-02 -5.915082991123199463e-03 -3.089246712625026703e-02 3.840589895844459534e-02 1.426673308014869690e-02 -2.483542077243328094e-02 3.229445591568946838e-02 4.808953031897544861e-02 -1.275745779275894165e-02
4.519898071885108948e-02 1.974810287356376648e-02 -1.727379485964775085e-02 2.570544555783271790e-02 -4.901228100061416626e-02 2.193656936287879944e-02 -1.556981727480888367e-02 -1.690751314163208008e-02 2.103996649384498596e-02 -1.517723873257637024e-02 -5.652904510498046875e-03 3.942726925015449524e-02
-1.126781851053237915e-02 4.152351990342140198e-02 3.928759321570396423e-02 -3.190957009792327881e-03 -2.133601903915405273e-02 -3.077071905136108398e-02 -5.386672914028167725e-03 -2.380605973303318024e-02 -2.076007239520549774e-02 3.960079327225685120e-02 -3.755012899637222290e-02 3.772020712494850159e-02
